{
    "preclassifier": {
        "kind": "n_way_binary_logistic_regression",
        "input_type": "fft_features",
        "components": [
            {
                "kind": "binary_logistic_regression",
                "input_type": "fft_features",
                "num_inputs": 120,
                "weights": [
                    -0.00032308201711239633,
                    0.0004966762734067946,
                    -0.00012842400201179392,
                    -0.007402551822702364,
                    0.0009674048302637227,
                    4.304645853962669e-05,
                    -0.0004061542037085881,
                    -0.0008553548659568188,
                    -0.001304555528205015,
                    -0.0017537561904532198,
                    8.22119766911864e-05,
                    -0.0006247803420109098,
                    0.002406311144743367,
                    0.001286357900869149,
                    0.0008260224731052204,
                    0.0031929558949506166,
                    0.002357884992992329,
                    0.001522814091034036,
                    0.0006877431890757367,
                    -0.00014732771288258025,
                    0.00017931904066835944,
                    -0.00514874747902585,
                    -0.0008881784886590855,
                    0.0010403009570943626,
                    0.003915418677725698,
                    8.159111072221834e-05,
                    -8.24577812457683e-05,
                    -0.0002465066732137299,
                    -0.0004105555651817297,
                    -0.0005746044571496834,
                    -1.2953528848383674e-05,
                    -0.001831630394679839,
                    0.004250772088862125,
                    0.00225174065239224,
                    0.0022801080710181587,
                    0.0017140965998359394,
                    0.0011925082216659676,
                    0.0006709198434960246,
                    0.00014933146532604272,
                    -0.00037225691284392307,
                    -0.0005057201217649887,
                    0.00446640429578094,
                    -0.00010413723566063263,
                    0.00032718667183243705,
                    0.0009724000246102397,
                    0.0002501398303206224,
                    0.0008729444013907664,
                    0.0014957489724609107,
                    0.0021185535435310422,
                    0.0027413581146012015,
                    -0.0002446241662153912,
                    0.0030738693879417893,
                    0.00142111970017583,
                    0.0018230771795981872,
                    -0.0004043543002829744,
                    0.0016084286754676944,
                    0.0005093557050811542,
                    -0.0005897172653054016,
                    -0.0016887902356919108,
                    -0.002787863206078461,
                    0.0003758746140323807,
                    -0.0021537351104676202,
                    -0.0029983870144999415,
                    0.0009626719288085954,
                    -0.00027082347282260714,
                    -0.002587963702814047,
                    -0.001600121959695274,
                    -0.0006122802165765191,
                    0.00037556152654224606,
                    0.0013634032696610483,
                    0.00021229942104798006,
                    -0.0026797810387391542,
                    0.0013436403171026676,
                    -0.002403308347927127,
                    -0.003258687583533395,
                    -0.00014209927410805995,
                    -0.0001428234720574797,
                    -0.00014354767000692803,
                    -0.0001442718679563928,
                    -0.00014499606590585797,
                    0.00012402415846396046,
                    0.003737582941635781,
                    -1.2605404052812698e-05,
                    -0.0005661677436047475,
                    0.000748681734647884,
                    0.0022306776958556903,
                    0.0014110638159872658,
                    0.0005914499361188844,
                    -0.00022816394374958838,
                    -0.0010477778236180312,
                    -0.0005509035456080991,
                    -0.0018152342940414218,
                    0.0007405820006618375,
                    -0.0014701287258802403,
                    -0.0032728850295666145,
                    0.0019262567639324309,
                    0.001198307735162556,
                    0.0004703587063925864,
                    -0.0002575903223772691,
                    -0.00098553935114721,
                    0.0007192390588459014,
                    -0.0006628307742984241,
                    0.0007543619575349378,
                    -0.0012071798046934237,
                    -0.002140502067812294,
                    0.0011207132526902053,
                    0.0006347630390930954,
                    0.00014881282549600988,
                    -0.00033713738810101806,
                    -0.0008230876016981032,
                    -0.00016970732416383407,
                    0.004140285328400807,
                    -0.0014726292930882503,
                    0.000850077697731273,
                    0.0010194548328163844,
                    0.0011358288025502979,
                    0.0006960592248648736,
                    0.0002562896471792184,
                    -0.00018347993050630784,
                    -0.0006232495081919039
                ],
                "intercept": -4.402989276812912e-05
            },
            {
                "kind": "binary_logistic_regression",
                "input_type": "fft_features",
                "num_inputs": 120,
                "weights": [
                    -0.000896452616216132,
                    0.0060533199443683116,
                    0.0012050189538153335,
                    -0.00853390441704099,
                    -0.001972773027475265,
                    -0.0005966990845885241,
                    -0.00036603759545674055,
                    -0.00013537610632489733,
                    9.528538280686185e-05,
                    0.00032594687193873137,
                    -0.00024569742579066354,
                    -0.0005292293872457645,
                    0.0015395995372881625,
                    0.0016006082332978005,
                    0.00389934190354233,
                    -0.0005721618929496148,
                    0.0003624866322445684,
                    0.0012971351574387403,
                    0.0022317836826329907,
                    0.0031664322078269985,
                    -0.00016309405363389685,
                    -0.0055950687694248935,
                    0.0018884669159128114,
                    0.006329287952737443,
                    0.0024533548836882277,
                    -0.002726795228610477,
                    -0.0016669370724418575,
                    -0.0006070789162732359,
                    0.00045277923989538,
                    0.0015126373960640286,
                    -0.0009754665616296872,
                    -0.006590931827786638,
                    -0.004866442405706734,
                    -0.00419744552209799,
                    0.0010391279180139228,
                    3.8761690117262494e-05,
                    -0.00010633246447544964,
                    -0.0002514266190682308,
                    -0.00039652077366092133,
                    -0.0005416149282537103,
                    0.0007356093748890108,
                    0.00019788469260747948,
                    0.0017869902874251954,
                    0.0005054903156437128,
                    -8.50201770731657e-05,
                    -0.0008419846650878539,
                    -0.00023838608218429812,
                    0.00036521250071930257,
                    0.000968811083622874,
                    0.0015724096665264411,
                    0.00010507066336356075,
                    0.007386508474679073,
                    0.0027117380266880172,
                    0.0013278021193678356,
                    0.0037210934206616114,
                    -0.00171475544224825,
                    -0.001742142338957235,
                    -0.0017695292356661567,
                    -0.0017969161323751392,
                    -0.0018243030290840574,
                    0.0020417127060322364,
                    -0.000961488287753291,
                    0.001892881749515615,
                    -0.0043562885152937615,
                    -1.0648336162747456e-06,
                    -0.005195635473856828,
                    -0.0032835889459171437,
                    -0.0013715424179773928,
                    0.0005405041099621181,
                    0.002452550637901761,
                    -0.0008441628245566735,
                    -0.0027611715906998495,
                    -0.002269562812436748,
                    -0.004843831370514469,
                    -0.001151469812258038,
                    -0.005588718972053382,
                    -0.0034736247919710727,
                    -0.001358530611888354,
                    0.0007565635681941866,
                    0.0028716577482764695,
                    -0.0004162578536658571,
                    0.00394989171612924,
                    0.005162064211175604,
                    -0.0009787258537605728,
                    0.002171866482484338,
                    -0.0034298242404010634,
                    -0.0021271451928518634,
                    -0.0008244661453026685,
                    0.0004782129022466181,
                    0.0017808919497959601,
                    0.00022979256614103112,
                    -0.0032857456234417696,
                    0.004485315035577892,
                    -0.002538714309982817,
                    -0.006711185862558146,
                    -0.00428702794060142,
                    -0.0026721674460133743,
                    -0.0010573069514252496,
                    0.0005575535431629864,
                    0.002172414037751025,
                    -0.0002802377335845097,
                    -0.0025656190286828767,
                    0.0011437784977960603,
                    -0.0025823299617827073,
                    -0.003927884075902443,
                    -0.005063432991055601,
                    -0.0031839833864184147,
                    -0.0013045337817809881,
                    0.0005749158228562037,
                    0.002454365427493392,
                    0.0015123242836105923,
                    0.0026099768022242926,
                    -0.0006230828119188356,
                    -0.0033229571076586585,
                    -0.0036047010942719605,
                    -0.001731845373678364,
                    -0.0010810905999262918,
                    -0.00043033582617409415,
                    0.00022041894757788357,
                    0.000871173721329879
                ],
                "intercept": -0.00034513042907402227
            }
        ]
    },
    "buckets": [
        {
            "classification_combination_binary": "00",
            "class": 0,
            "rewards": [
                0.7708955223880597,
                0.8753575807110748
            ],
            "costs": [
                22.070962607981343,
                45.07740502236169
            ]
        },
        {
            "classification_combination_binary": "01",
            "class": 1,
            "rewards": [
                0.7708955223880597,
                0.9244432661717922
            ],
            "costs": [
                22.070962607981343,
                45.07740502236169
            ]
        },
        {
            "classification_combination_binary": "10",
            "class": 2,
            "rewards": [
                0.8154846001695394,
                0.8753575807110748
            ],
            "costs": [
                22.070962607981343,
                45.07740502236169
            ]
        },
        {
            "classification_combination_binary": "11",
            "class": 3,
            "rewards": [
                0.8154846001695394,
                0.9244432661717922
            ],
            "costs": [
                22.070962607981343,
                45.07740502236169
            ]
        }
    ]
}