{
    "preclassifier": {
        "kind": "binary_logistic_regression",
        "input_type": "fft_features",
        "num_inputs": 120,
        "weights": [
            -8.15129607210423e-05,
            0.001975220194607625,
            0.0010371419965590973,
            -0.006612971992784369,
            0.0008292968148307774,
            0.00019210698584562458,
            -0.00011749758945727524,
            -0.00042710216476017404,
            -0.0007367067400630873,
            -0.0010463113153659485,
            0.0004373715175741884,
            0.0003611746125181189,
            0.0017332433963394526,
            0.0007644615698900252,
            0.0011934872030381549,
            0.001731543775475045,
            0.0018806552833871499,
            0.0020297667912992277,
            0.0021788782992113137,
            0.0023279898071234323,
            -8.539776780337123e-05,
            -0.0064151151269191626,
            -0.0008243714193122508,
            0.0020003682694574817,
            0.0035621967743975167,
            -0.0004288784032247195,
            -9.399462564747585e-05,
            0.00024088915192976547,
            0.0005757729295070302,
            0.0009106567070842822,
            -0.00022762180146779646,
            -0.004084596096978019,
            0.0019698449994715274,
            -0.0001471120448988145,
            0.0022732786760426703,
            0.0008521557051068508,
            0.0003103246079567414,
            -0.00023150648919335802,
            -0.0007733375863434614,
            -0.001315168683493576,
            -0.0002001998047542005,
            0.0036316049514129884,
            0.0016357240409696629,
            -0.0006245593403135149,
            0.0012133245519650596,
            -0.00025766423301427314,
            0.0004025946326763868,
            0.0010628534983670656,
            0.0017231123640577377,
            0.0023833712297484646,
            -0.0005487615219353113,
            0.0053011480907307635,
            0.0014703644553667795,
            0.0015907737727631844,
            0.0009674863356065983,
            -0.00022033326635967316,
            -0.0011129057371927124,
            -0.0020054782080257587,
            -0.002898050678858862,
            -0.0037906231496919462,
            0.00030724375017363617,
            -0.0024117083454004047,
            -0.003585031177220747,
            0.0003806225158507876,
            -0.0005919175870528624,
            -0.0016761051966126571,
            -0.0010622870274054727,
            -0.00044846885819832836,
            0.00016534931100888932,
            0.0007791674802161127,
            0.0006828449435570236,
            -0.0007457416480196737,
            0.002044196507263059,
            -0.00048108855014497446,
            -0.0011902113155659868,
            0.0002209441123443788,
            0.00010006405182354781,
            -2.0816008697215994e-05,
            -0.00014169606921808414,
            -0.0002625761297388229,
            -0.0005505902821608704,
            0.0037536624495650545,
            8.823779187911453e-05,
            -0.0001649949356284471,
            0.00019603436471327788,
            0.0022203827278902025,
            0.001404146184704686,
            0.000587909641519246,
            -0.0002283269016662254,
            -0.001044563444851743,
            9.157209457794432e-05,
            -0.001588484635661308,
            -0.0013914141129811165,
            -0.0018634270637428241,
            -0.002113915253362888,
            -3.864752007448678e-05,
            -2.5251279815904096e-05,
            -1.1855039557309631e-05,
            1.5412007013360587e-06,
            1.4937440959817373e-05,
            0.00029327007736428153,
            -0.0011482371422439025,
            0.0011974191809077336,
            -0.0011011896834287039,
            -0.00030327919161269223,
            0.0005629038950062098,
            0.00030420310684099245,
            4.550231867580708e-05,
            -0.00021319846948940016,
            -0.0004718992576546017,
            -0.0007414060767263505,
            0.0046338368480083915,
            -0.00016723152244758576,
            0.002307153089518843,
            0.001640691337018832,
            -0.0022986296167922613,
            -0.0014382753357815533,
            -0.0005779210547708674,
            0.00028243322623985184,
            0.0011427875072505935
        ],
        "intercept": -5.373566448627406e-05
    },
    "buckets": [
        {
            "class": 0,
            "rewards": [
                0.7796303008336354,
                0.896339253352664
            ],
            "costs": [
                22.070962607981343,
                45.07740502236169
            ]
        },
        {
            "class": 1,
            "rewards": [
                0.8095375722543353,
                0.9121387283236995
            ],
            "costs": [
                22.070962607981343,
                45.07740502236169
            ]
        }
    ]
}