{
    "preclassifier": {
        "kind": "binary_logistic_regression",
        "input_type": "fft_features",
        "num_inputs": 120,
        "weights": [
            -2.0551825593781277e-05,
            0.0001469276654989966,
            -0.002454138468790914,
            -0.0015334794117553522,
            0.0015430436862651563,
            0.00044240346895900104,
            -0.00012411342203699508,
            -0.0006906303130329881,
            -0.001257147204028995,
            -0.0018236640950249768,
            0.00032521741989495386,
            -0.0001590652031231386,
            0.002404669642478816,
            -0.0002821706464096601,
            -0.00027492435683915286,
            0.0031029487480107166,
            0.0024642006657181396,
            0.0018254525834255214,
            0.0011867045011329882,
            0.0005479564188404051,
            0.00016793653689810287,
            -0.006439381214729633,
            -0.0002462340041165522,
            -0.0005117151379354163,
            0.00326951506093675,
            0.00048598926254209346,
            0.0002470574241045325,
            8.125585666980337e-06,
            -0.00023080625277055857,
            -0.00046973809120816475,
            0.00023421151414907383,
            -0.0016598482482764441,
            0.0066509170173718385,
            0.0012729261315967666,
            0.002309056568768839,
            0.00156568463800358,
            0.0008753734971339814,
            0.00018506235626442608,
            -0.0005052487846051635,
            -0.0011955599254746476,
            -0.0006254590909562849,
            0.004719405084132206,
            0.0017439203284037757,
            -0.0017862660534563406,
            0.0011366303621911421,
            0.0004406453907958427,
            0.001014997400632886,
            0.0015893494104699149,
            0.0021637014203069677,
            0.0027380534301439502,
            -0.0005392693081753462,
            0.002907169274272281,
            0.002324289657254241,
            0.00029648846911176373,
            -0.0011276166758650333,
            0.0012402046274636602,
            0.00011680590142683504,
            -0.0010065928246099575,
            -0.0021299915506467824,
            -0.003253390276683608,
            -0.00033340396217537536,
            -0.002675677313880983,
            -0.0032692244148208654,
            0.0014626203585358345,
            -0.000631275789515755,
            -0.0009288465107925106,
            -0.0005507369805142229,
            -0.00017262745023588022,
            0.00020548208004237677,
            0.0005835916103206617,
            0.000868821941233417,
            -0.00039267780777968745,
            0.003050169412532205,
            -0.0008711331799709683,
            -0.0022738668534721083,
            0.001321366170617024,
            0.000763436047992759,
            0.00020550592536851533,
            -0.000352424197255802,
            -0.000910354319880059,
            -1.9484383054403892e-05,
            0.0022431543500281105,
            -0.0009313045100881029,
            -0.0007477497466921692,
            -0.0002075927265696084,
            0.003759914538370002,
            0.0023646979421863648,
            0.0009694813460026673,
            -0.000425735250181084,
            -0.001820951846364695,
            -0.00046356810462360755,
            -0.000865411769965232,
            -0.00183952785009192,
            -0.002036850108509823,
            -0.0014628623746097947,
            0.002610366893330194,
            0.0016202536418658206,
            0.0006301403904014247,
            -0.0003599728610629371,
            -0.001350086112527406,
            0.0007767378120382277,
            -0.0006614914260141919,
            0.0015309074717901737,
            -0.0014625608270445747,
            -0.0005992400869121435,
            0.0026626446409212592,
            0.0016095673657869024,
            0.0005564900906525327,
            -0.0004965871844819046,
            -0.001549664459616182,
            -0.0009089143466108992,
            0.0046398085442932715,
            -0.0006478984051694741,
            0.0026619350733446275,
            0.002480661699021209,
            0.00013677023783616226,
            7.043186128650759e-05,
            4.0934847367275034e-06,
            -6.22448918127187e-05,
            -0.00012858326836230822
        ],
        "intercept": 1.3960313076251784e-05
    },
    "buckets": [
        {
            "class": 0,
            "rewards": [
                0.77588085724664,
                0.9070105339629495
            ],
            "costs": [
                22.070962607981343,
                45.07740502236169
            ]
        },
        {
            "class": 1,
            "rewards": [
                0.812463935372187,
                0.9036353144835545
            ],
            "costs": [
                22.070962607981343,
                45.07740502236169
            ]
        }
    ]
}